tree
version=v3
num_class=1
num_tree_per_iteration=1
label_index=0
max_feature_idx=149
objective=regression
feature_names=rs74785161 rs78174508 rs74097544 rs12125468 rs12127950 rs2340727 rs9887939 rs12757165 rs3936161 rs4276903 rs3113240 rs115426074 rs75708282 rs58918346 rs7566893 Affx-18904892 rs6727838 rs10497923 rs4455100 rs4684732 rs1869518 rs807200 rs1994480 rs10446335 rs6782439 rs3732454 rs74868079 rs9853707 rs56165638 rs116251317 rs4541596 rs10018692 rs35892173 rs257173 rs449700 rs17450801 rs2589382 rs2112701 rs157471 rs9379029 rs34024822 rs113990320 rs84933 rs553822 rs6931038 rs625461 rs12211437 rs516515 rs352849 rs9385584 rs17292544 rs62433244 rs17755540 rs11974417 rs78193026 rs55664670 rs2729549 rs67161714 rs10225543 rs73204384 rs4372002 rs2410447 rs6988165 rs117448642 rs4418314 rs117323344 rs34928288 rs187138730 rs10810715 rs324475 rs4415391 rs10858396 rs12344407 rs2606357 rs73586376 rs11253564 rs35620397 rs11257144 rs2035887 rs117373101 rs11200877 rs7913221 rs12418972 rs10500651 rs17728870 rs6590574 rs12791068 rs3217852 rs7248 rs73042578 rs17125704 rs11105360 rs7314994 rs73196004 rs116849137 rs17078840 rs76536024 rs9528247 rs9601838 rs723879 rs9671535 rs11625534 rs34263984 rs17119267 rs34579073 rs12594359 Affx-11525194 rs11636391 rs3809635 rs7200924 rs34091811 rs17683847 rs11640223 rs117963132 rs62033458 rs8079846 rs12450901 rs8078890 rs72899275 rs72902422 rs62086511 rs1421024 rs75072687 rs7236352 Affx-15344817 rs17228475 rs138735905 rs10408290 rs4808801 rs4808136 rs2457792 rs73024113 rs775879 rs3848732 rs6079824 rs186592071 rs2825774 rs4816455 rs7282496 rs13051161 rs2834252 rs2834253 rs10854408 rs692532 rs138561 rs17772681 rs2267348 rs11554714 rs9614823 rs1474834
feature_infos=none none none none none none none [0:2] none [0:2] [0:2] none none [0:2] [0:2] [0:2] [0:2] [0:2] [0:2] none [0:2] [0:2] [0:2] [0:2] none none none none none none [0:2] none none [0:2] [0:2] [0:2] [0:2] [0:2] [1:2] none none none [0:2] [0:2] [0:2] [0:2] none none [0:2] [0:2] none [0:2] [0:2] [0:2] none [0:2] [0:2] [0:2] none none [0:2] [0:2] none none [0:2] none [0:2] none none [0:2] [0:2] [0:2] [1:2] [0:2] none [1:2] [0:2] [0:2] [0:2] none [0:2] [0:2] [0:2] [0:2] none [0:2] [1:2] [0:2] [0:2] none [0:2] [0:2] [0:2] none none [0:2] none none none [0:2] none none none none none [0:2] none [0:2] [0:2] [0:2] [0:2] [0:2] [0:2] none none [0:2] [0:2] [0:2] none none [0:2] [0:2] none [0:2] [0:2] [0:2] none [0:2] [0:2] [0:2] [0:2] none [0:2] [0:2] [0:2] none [0:2] [0:2] [0:2] none [0:2] [0:2] none [0:2] [0:2] none [0:2] none [0:2] [0:2]
tree_sizes=385 396 397 396 396 397 396 396 396 398 398 396 397 398 398 398 397 396 396 396 399 396 398 397 397 396 397 393 395 397 395 398 399 398

Tree=0
num_leaves=3
num_cat=0
split_feature=141 10
split_gain=5241.12 3562.1
threshold=1.5000000000000002 1.5000000000000002
decision_type=2 2
left_child=1 -1
right_child=-2 -3
leaf_value=168.43577564091342 168.42646850023101 168.45237802140912
leaf_weight=28 28 24
leaf_count=28 28 24
internal_value=168.437 168.443
internal_weight=0 52
internal_count=80 52
is_linear=0
shrinkage=1


Tree=1
num_leaves=3
num_cat=0
split_feature=66 69
split_gain=4873.25 5413.29
threshold=1.5000000000000002 1.5000000000000002
decision_type=2 2
left_child=-1 -2
right_child=1 -3
leaf_value=-0.0088498677900859298 0.017610074810359786 -0.0043311971263452018
leaf_weight=35 23 22
leaf_count=35 23 22
internal_value=0 0.00688323
internal_weight=0 45
internal_count=80 45
is_linear=0
shrinkage=0.001


Tree=2
num_leaves=3
num_cat=0
split_feature=140 116
split_gain=4778.93 2750.54
threshold=1.5000000000000002 1.5000000000000002
decision_type=2 2
left_child=1 -1
right_child=-2 -3
leaf_value=-0.0039311236298602559 -0.012954977302324205 0.010068621423509387
leaf_weight=23 21 36
leaf_count=23 21 36
internal_value=0 0.00461109
internal_weight=0 59
internal_count=80 59
is_linear=0
shrinkage=0.001


Tree=3
num_leaves=3
num_cat=0
split_feature=141 116
split_gain=5219.43 2768.41
threshold=1.5000000000000002 1.5000000000000002
decision_type=2 2
left_child=1 -1
right_child=-2 -3
leaf_value=-0.0029380024501255582 -0.01100750863977841 0.011932525657838391
leaf_weight=21 28 31
leaf_count=21 28 31
internal_value=0 0.00592712
internal_weight=0 52
internal_count=80 52
is_linear=0
shrinkage=0.001


Tree=4
num_leaves=3
num_cat=0
split_feature=137 120
split_gain=4394.32 4257.7
threshold=1.5000000000000002 1.5000000000000002
decision_type=2 2
left_child=1 -1
right_child=-2 -3
leaf_value=-0.0072008206957862491 -0.012836940303444863 0.010460411411065322
leaf_weight=21 20 39
leaf_count=21 20 39
internal_value=0 0.00427898
internal_weight=0 60
internal_count=80 60
is_linear=0
shrinkage=0.001


Tree=5
num_leaves=3
num_cat=0
split_feature=141 116
split_gain=5203.49 2761.01
threshold=1.5000000000000002 1.5000000000000002
decision_type=2 2
left_child=1 -1
right_child=-2 -3
leaf_value=-0.0029352002825055803 -0.010990696496197156 0.011915442112953433
leaf_weight=21 28 31
leaf_count=21 28 31
internal_value=0 0.00591807
internal_weight=0 52
internal_count=80 52
is_linear=0
shrinkage=0.001


Tree=6
num_leaves=3
num_cat=0
split_feature=141 10
split_gain=5193.09 3545.88
threshold=1.5000000000000002 1.5000000000000002
decision_type=2 2
left_child=1 -1
right_child=-2 -3
leaf_value=-0.0017330133148602076 -0.010979705974459648 0.014831505795319876
leaf_weight=28 28 24
leaf_count=28 28 24
internal_value=0 0.00591215
internal_weight=0 52
internal_count=80 52
is_linear=0
shrinkage=0.001


Tree=7
num_leaves=3
num_cat=0
split_feature=140 69
split_gain=4739.72 2973.76
threshold=1.5000000000000002 1.5000000000000002
decision_type=2 2
left_child=1 -1
right_child=-2 -3
leaf_value=0.010893823089021626 -0.012901718468893143 -0.0034061561822891235
leaf_weight=33 21 26
leaf_count=33 21 26
internal_value=0 0.00459214
internal_weight=0 59
internal_count=80 59
is_linear=0
shrinkage=0.001


Tree=8
num_leaves=3
num_cat=0
split_feature=141 36
split_gain=5174.7 2464.63
threshold=1.5000000000000002 1.5000000000000002
decision_type=2 2
left_child=1 -1
right_child=-2 -3
leaf_value=0.012786200303297777 -0.010960241151707512 -0.00098286370130685661
leaf_weight=26 28 26
leaf_count=26 28 26
internal_value=0 0.00590167
internal_weight=0 52
internal_count=80 52
is_linear=0
shrinkage=0.001


Tree=9
num_leaves=3
num_cat=0
split_feature=141 136
split_gain=5164.35 2605.85
threshold=1.5000000000000002 1.5000000000000002
decision_type=2 2
left_child=1 -1
right_child=-2 -3
leaf_value=0.013252497892379761 -0.010949280934674401 -0.00091602198282877598
leaf_weight=25 28 27
leaf_count=25 28 27
internal_value=0 0.00589577
internal_weight=0 52
internal_count=80 52
is_linear=0
shrinkage=0.001


Tree=10
num_leaves=3
num_cat=0
split_feature=80 53
split_gain=5122.55 2156.92
threshold=1.5000000000000002 1.5000000000000002
decision_type=2 2
left_child=1 -1
right_child=-2 -3
leaf_value=-0.013714775974100287 0.010060398232552312 -0.00037582508722941086
leaf_weight=22 31 27
leaf_count=22 31 27
internal_value=0 -0.00636474
internal_weight=0 49
internal_count=80 49
is_linear=0
shrinkage=0.001


Tree=11
num_leaves=3
num_cat=0
split_feature=80 14
split_gain=5112.31 2582.86
threshold=1.5000000000000002 1.5000000000000002
decision_type=2 2
left_child=1 -1
right_child=-2 -3
leaf_value=0.0020250484091894972 0.010050337952952232 -0.012645946366446358
leaf_weight=21 31 28
leaf_count=21 31 28
internal_value=0 -0.00635838
internal_weight=0 49
internal_count=80 49
is_linear=0
shrinkage=0.001


Tree=12
num_leaves=3
num_cat=0
split_feature=140 14
split_gain=4706.99 3072.81
threshold=1.5000000000000002 1.5000000000000002
decision_type=2 2
left_child=1 -1
right_child=-2 -3
leaf_value=0.012169788335050856 -0.012857093759945461 -0.0022824227579178349
leaf_weight=28 21 31
leaf_count=28 21 31
internal_value=0 0.00457625
internal_weight=0 59
internal_count=80 59
is_linear=0
shrinkage=0.001


Tree=13
num_leaves=3
num_cat=0
split_feature=80 53
split_gain=5099.29 2149.95
threshold=1.5000000000000002 1.5000000000000002
decision_type=2 2
left_child=1 -1
right_child=-2 -3
leaf_value=-0.013688435717062516 0.010037532683341734 -0.00037103447649214008
leaf_weight=22 31 27
leaf_count=22 31 27
internal_value=0 -0.00635028
internal_weight=0 49
internal_count=80 49
is_linear=0
shrinkage=0.001


Tree=14
num_leaves=3
num_cat=0
split_feature=66 148
split_gain=4831.03 3186.9
threshold=1.5000000000000002 1.5000000000000002
decision_type=2 2
left_child=-1 -2
right_child=1 -3
leaf_value=-0.0088114429865564625 -0.00067367864847183226 0.016262123537063598
leaf_weight=35 25 20
leaf_count=35 25 20
internal_value=0 0.00685334
internal_weight=0 45
internal_count=80 45
is_linear=0
shrinkage=0.001


Tree=15
num_leaves=3
num_cat=0
split_feature=80 53
split_gain=5086.06 2143.57
threshold=1.5000000000000002 1.5000000000000002
decision_type=2 2
left_child=1 -1
right_child=-2 -3
leaf_value=-0.013669294942509045 0.010024500546916839 -0.00037166782440962613
leaf_weight=22 31 27
leaf_count=22 31 27
internal_value=0 -0.00634203
internal_weight=0 49
internal_count=80 49
is_linear=0
shrinkage=0.001


Tree=16
num_leaves=3
num_cat=0
split_feature=141 10
split_gain=5128.49 3523.21
threshold=1.5000000000000002 1.5000000000000002
decision_type=2 2
left_child=1 -1
right_child=-2 -3
leaf_value=-0.0017454227549689157 -0.010911197575075287 0.014766057064135871
leaf_weight=28 28 24
leaf_count=28 28 24
internal_value=0 0.00587526
internal_weight=0 52
internal_count=80 52
is_linear=0
shrinkage=0.001


Tree=17
num_leaves=3
num_cat=0
split_feature=140 14
split_gain=4680.77 3061.96
threshold=1.5000000000000002 1.5000000000000002
decision_type=2 2
left_child=1 -1
right_child=-2 -3
leaf_value=0.01214359872681754 -0.012821244095052992 -0.0022830528136222597
leaf_weight=28 21 31
leaf_count=28 21 31
internal_value=0 0.00456349
internal_weight=0 59
internal_count=80 59
is_linear=0
shrinkage=0.001


Tree=18
num_leaves=3
num_cat=0
split_feature=80 14
split_gain=5068.28 2563.83
threshold=1.5000000000000002 1.5000000000000002
decision_type=2 2
left_child=1 -1
right_child=-2 -3
leaf_value=0.0020215525087856111 0.010006963622185491 -0.012595302513667516
leaf_weight=21 31 28
leaf_count=21 31 28
internal_value=0 -0.00633094
internal_weight=0 49
internal_count=80 49
is_linear=0
shrinkage=0.001


Tree=19
num_leaves=3
num_cat=0
split_feature=140 10
split_gain=4667.63 3034.32
threshold=1.5000000000000002 1.5000000000000002
decision_type=2 2
left_child=1 -1
right_child=-2 -3
leaf_value=-0.0024937895218531294 -0.01280323263293221 0.011851088680070022
leaf_weight=30 21 29
leaf_count=30 21 29
internal_value=0 0.00455708
internal_weight=0 59
internal_count=80 59
is_linear=0
shrinkage=0.001


Tree=20
num_leaves=3
num_cat=0
split_feature=66 148
split_gain=4808.92 3172.02
threshold=1.5000000000000002 1.5000000000000002
decision_type=2 2
left_child=-1 -2
right_child=1 -3
leaf_value=-0.0087912572537149711 -0.00067177791595458977 0.016224422907829286
leaf_weight=35 25 20
leaf_count=35 25 20
internal_value=0 0.00683764
internal_weight=0 45
internal_count=80 45
is_linear=0
shrinkage=0.001


Tree=21
num_leaves=3
num_cat=0
split_feature=80 14
split_gain=5051.16 2556.51
threshold=1.5000000000000002 1.5000000000000002
decision_type=2 2
left_child=1 -1
right_child=-2 -3
leaf_value=0.0020203173217319308 0.0099900565531946001 -0.01257565803187234
leaf_weight=21 31 28
leaf_count=21 31 28
internal_value=0 -0.00632024
internal_weight=0 49
internal_count=80 49
is_linear=0
shrinkage=0.001


Tree=22
num_leaves=3
num_cat=0
split_feature=141 116
split_gain=5090.26 2735.89
threshold=1.5000000000000002 1.5000000000000002
decision_type=2 2
left_child=1 -1
right_child=-2 -3
leaf_value=-0.0029595763342721119 -0.010870452372091156 0.011823347560821042
leaf_weight=21 28 31
leaf_count=21 28 31
internal_value=0 0.00585332
internal_weight=0 52
internal_count=80 52
is_linear=0
shrinkage=0.001


Tree=23
num_leaves=3
num_cat=0
split_feature=141 10
split_gain=5080.08 3501.75
threshold=1.5000000000000002 1.5000000000000002
decision_type=2 2
left_child=1 -1
right_child=-2 -3
leaf_value=-0.0017499800494738989 -0.010859582136784281 0.014711155533790588
leaf_weight=28 28 24
leaf_count=28 28 24
internal_value=0 0.00584747
internal_weight=0 52
internal_count=80 52
is_linear=0
shrinkage=0.001


Tree=24
num_leaves=3
num_cat=0
split_feature=141 66
split_gain=5069.93 2968.17
threshold=1.5000000000000002 1.5000000000000002
decision_type=2 2
left_child=1 -1
right_child=-2 -3
leaf_value=-0.0037149670720100403 -0.010848722536649022 0.011814486607909203
leaf_weight=20 28 32
leaf_count=20 28 32
internal_value=0 0.00584162
internal_weight=0 52
internal_count=80 52
is_linear=0
shrinkage=0.001


Tree=25
num_leaves=3
num_cat=0
split_feature=132 146
split_gain=3846.15 3009.24
threshold=1.5000000000000002 1.5000000000000002
decision_type=2 2
left_child=1 -1
right_child=-2 -3
leaf_value=-0.0030934177353268578 -0.0082748505617633011 0.013001224582011884
leaf_weight=21 33 26
leaf_count=21 33 26
internal_value=0 0.00581
internal_weight=0 47
internal_count=80 47
is_linear=0
shrinkage=0.001


Tree=26
num_leaves=3
num_cat=0
split_feature=141 10
split_gain=5056.48 3491.69
threshold=1.5000000000000002 1.5000000000000002
decision_type=2 2
left_child=1 -1
right_child=-2 -3
leaf_value=-0.0017526538116591317 -0.010834323348743576 0.014684806684652964
leaf_weight=28 28 24
leaf_count=28 28 24
internal_value=0 0.00583387
internal_weight=0 52
internal_count=80 52
is_linear=0
shrinkage=0.001


Tree=27
num_leaves=3
num_cat=0
split_feature=141 116
split_gain=5046.37 2724
threshold=1.5000000000000002 1.5000000000000002
decision_type=2 2
left_child=1 -1
right_child=-2 -3
leaf_value=-0.002965698140008109 -0.01082348914870194 0.011785076018302672
leaf_weight=21 28 31
leaf_count=21 28 31
internal_value=0 0.00582803
internal_weight=0 52
internal_count=80 52
is_linear=0
shrinkage=0.001


Tree=28
num_leaves=3
num_cat=0
split_feature=141 10
split_gain=5036.28 3482.92
threshold=1.5000000000000002 1.5000000000000002
decision_type=2 2
left_child=1 -1
right_child=-2 -3
leaf_value=-0.0017547839283943176 -0.01081266551571233 0.014662024497985841
leaf_weight=28 28 24
leaf_count=28 28 24
internal_value=0 0.0058222
internal_weight=0 52
internal_count=80 52
is_linear=0
shrinkage=0.001


Tree=29
num_leaves=3
num_cat=0
split_feature=140 14
split_gain=4601.38 3035.94
threshold=1.5000000000000002 1.5000000000000002
decision_type=2 2
left_child=1 -1
right_child=-2 -3
leaf_value=0.012072453924587794 -0.012712039076146627 -0.0022927704857241727
leaf_weight=28 21 31
leaf_count=28 21 31
internal_value=0 0.00452462
internal_weight=0 59
internal_count=80 59
is_linear=0
shrinkage=0.001


Tree=30
num_leaves=3
num_cat=0
split_feature=80 53
split_gain=5006.8 2125.21
threshold=1.5000000000000002 1.5000000000000002
decision_type=2 2
left_child=1 -1
right_child=-2 -3
leaf_value=-0.01358822529966181 0.009946091582698208 -0.0003476994103855557
leaf_weight=22 31 27
leaf_count=22 31 27
internal_value=0 -0.00629243
internal_weight=0 49
internal_count=80 49
is_linear=0
shrinkage=0.001


Tree=31
num_leaves=3
num_cat=0
split_feature=80 53
split_gain=4996.79 2120.96
threshold=1.5000000000000002 1.5000000000000002
decision_type=2 2
left_child=1 -1
right_child=-2 -3
leaf_value=-0.013574637012048201 0.009936145413306452 -0.00034735148262094568
leaf_weight=22 31 27
leaf_count=22 31 27
internal_value=0 -0.00628613
internal_weight=0 49
internal_count=80 49
is_linear=0
shrinkage=0.001


Tree=32
num_leaves=3
num_cat=0
split_feature=80 53
split_gain=4986.81 2116.72
threshold=1.5000000000000002 1.5000000000000002
decision_type=2 2
left_child=1 -1
right_child=-2 -3
leaf_value=-0.013561062390154059 0.0099262093651679272 -0.00034700415973310119
leaf_weight=22 31 27
leaf_count=22 31 27
internal_value=0 -0.00627985
internal_weight=0 49
internal_count=80 49
is_linear=0
shrinkage=0.001


Tree=33
num_leaves=3
num_cat=0
split_feature=138 120
split_gain=4259.06 4186.42
threshold=1.5000000000000002 1.5000000000000002
decision_type=2 2
left_child=1 -1
right_child=-2 -3
leaf_value=-0.0071707010836828322 -0.012637826776504517 0.010342083555001479
leaf_weight=21 20 39
leaf_count=21 20 39
internal_value=0 0.00421261
internal_weight=0 60
internal_count=80 60
is_linear=0
shrinkage=0.001


end of trees

feature_importances:
rs2834253=13
rs11200877=9
rs3113240=7
rs7566893=6
rs11974417=6
rs2834252=6
rs12450901=5
rs34928288=4
rs324475=2
rs62086511=2
rs9614823=2
rs2589382=1
rs775879=1
rs2825774=1
rs4816455=1
rs7282496=1
rs2267348=1

parameters:
[boosting: gbdt]
[objective: regression]
[metric: l1]
[tree_learner: serial]
[device_type: cpu]
[data: ]
[valid: ]
[num_iterations: 100]
[learning_rate: 0.001]
[num_leaves: 10]
[num_threads: 4]
[deterministic: 0]
[force_col_wise: 0]
[force_row_wise: 0]
[histogram_pool_size: -1]
[max_depth: 10]
[min_data_in_leaf: 20]
[min_sum_hessian_in_leaf: 0.001]
[bagging_fraction: 0.7]
[pos_bagging_fraction: 1]
[neg_bagging_fraction: 1]
[bagging_freq: 0]
[bagging_seed: 0]
[feature_fraction: 0.5]
[feature_fraction_bynode: 1]
[feature_fraction_seed: 2]
[extra_trees: 0]
[extra_seed: 6]
[early_stopping_round: 200]
[first_metric_only: 0]
[max_delta_step: 0]
[lambda_l1: 0]
[lambda_l2: 0]
[linear_lambda: 0]
[min_gain_to_split: 0]
[drop_rate: 0.1]
[max_drop: 50]
[skip_drop: 0.5]
[xgboost_dart_mode: 0]
[uniform_drop: 0]
[drop_seed: 4]
[top_rate: 0.2]
[other_rate: 0.1]
[min_data_per_group: 100]
[max_cat_threshold: 32]
[cat_l2: 10]
[cat_smooth: 10]
[max_cat_to_onehot: 4]
[top_k: 20]
[monotone_constraints: ]
[monotone_constraints_method: basic]
[monotone_penalty: 0]
[feature_contri: ]
[forcedsplits_filename: ]
[refit_decay_rate: 0.9]
[cegb_tradeoff: 1]
[cegb_penalty_split: 0]
[cegb_penalty_feature_lazy: ]
[cegb_penalty_feature_coupled: ]
[path_smooth: 0]
[interaction_constraints: ]
[verbosity: 1]
[saved_feature_importance_type: 0]
[linear_tree: 0]
[max_bin: 255]
[max_bin_by_feature: ]
[min_data_in_bin: 3]
[bin_construct_sample_cnt: 200000]
[data_random_seed: 1]
[is_enable_sparse: 1]
[enable_bundle: 1]
[use_missing: 1]
[zero_as_missing: 0]
[feature_pre_filter: 1]
[pre_partition: 0]
[two_round: 0]
[header: 0]
[label_column: ]
[weight_column: ]
[group_column: ]
[ignore_column: ]
[categorical_feature: ]
[forcedbins_filename: ]
[precise_float_parser: 0]
[objective_seed: 5]
[num_class: 1]
[is_unbalance: 0]
[scale_pos_weight: 1]
[sigmoid: 1]
[boost_from_average: 1]
[reg_sqrt: 0]
[alpha: 0.9]
[fair_c: 1]
[poisson_max_delta_step: 0.7]
[tweedie_variance_power: 1.5]
[lambdarank_truncation_level: 30]
[lambdarank_norm: 1]
[label_gain: ]
[eval_at: ]
[multi_error_top_k: 1]
[auc_mu_weights: ]
[num_machines: 1]
[local_listen_port: 12400]
[time_out: 120]
[machine_list_filename: ]
[machines: ]
[gpu_platform_id: -1]
[gpu_device_id: -1]
[gpu_use_dp: 0]
[num_gpu: 1]

end of parameters

pandas_categorical:[]
